svm_type c_svc
kernel_type linear
nr_class 2
total_sv 6
rho -4.44593
label -1 1
nr_sv 3 3
SV
0.02549148957392608 1:5 2:4 3:4 4:5 5:7 6:10 7:3 8:2 9:1 10:2 
0.1031685281321533 1:6 2:8 3:8 4:1 5:3 6:4 7:3 8:7 9:1 10:2 
0.1771894528359707 1:4 2:1 3:1 4:3 5:2 6:1 7:3 8:1 9:1 10:2 
-0.255900095565204 1:5 2:3 3:3 4:3 5:2 6:3 7:4 8:4 9:1 10:4 
-0.04866514814625332 1:7 2:4 3:6 4:4 5:6 6:1 7:4 8:3 9:1 10:4 
-0.001284226830592654 1:10 2:7 3:7 4:6 5:4 6:10 7:4 8:1 9:2 10:4 
